package org.matsim.prepare.network;
import it.unimi.dsi.fastutil.objects.Object2DoubleMap;

/**
* Generated model, do not modify.
*/
public class Speedrelative_right_before_left implements FeatureRegressor {

    @Override
    public double predict(Object2DoubleMap<String> ft) {
        double[] data = new double[14];
		data[0] = (ft.getDouble("length") - 133.10125331063188) / 78.97094374399138;
		data[1] = (ft.getDouble("speed") - 8.333418463866819) / 0.13514417432622952;
		data[2] = (ft.getDouble("numFoes") - 2.239973514945138) / 0.6527240855058805;
		data[3] = (ft.getDouble("numLanes") - 1.007094211123723) / 0.09043758661115839;
		data[4] = (ft.getDouble("junctionSize") - 10.936152099886492) / 3.8735682630465176;
		data[5] = ft.getDouble("dir_l");
		data[6] = ft.getDouble("dir_r");
		data[7] = ft.getDouble("dir_s");
		data[8] = ft.getDouble("dir_multiple_s");
		data[9] = ft.getDouble("dir_exclusive");
		data[10] = ft.getDouble("priority_lower");
		data[11] = ft.getDouble("priority_equal");
		data[12] = ft.getDouble("priority_higher");
		data[13] = ft.getDouble("changeNumLanes");

        for (int i = 0; i < data.length; i++)
            if (Double.isNaN(data[i])) throw new IllegalArgumentException("Invalid data at index: " + i);

        return score(data);
    }
    public static double score(double[] input) {
        double var0;
        if (input[0] <= -0.9760077595710754) {
            if (input[6] <= 0.5) {
                if (input[8] <= 0.5) {
                    if (input[4] <= -0.11259698867797852) {
                        var0 = 0.9053117524450857;
                    } else {
                        var0 = 0.84;
                    }
                } else {
                    if (input[3] <= 16.507580757141113) {
                        var0 = 0.9325921658986175;
                    } else {
                        var0 = 0.98;
                    }
                }
            } else {
                if (input[0] <= -1.2544012665748596) {
                    if (input[2] <= -1.133669689297676) {
                        var0 = 0.9135150375939851;
                    } else {
                        var0 = 0.8706912878787878;
                    }
                } else {
                    if (input[2] <= -1.133669689297676) {
                        var0 = 0.9122142857142858;
                    } else {
                        var0 = 0.8910488934477183;
                    }
                }
            }
        } else {
            if (input[4] <= -1.145236611366272) {
                if (input[3] <= 5.450231730937958) {
                    if (input[0] <= 3.7021052837371826) {
                        var0 = 0.916284994724511;
                    } else {
                        var0 = 0.954;
                    }
                } else {
                    if (input[0] <= -0.5081141442060471) {
                        var0 = 0.9165000000000001;
                    } else {
                        var0 = 0.9620033670033671;
                    }
                }
            } else {
                if (input[0] <= -0.5711120069026947) {
                    if (input[6] <= 0.5) {
                        var0 = 0.9098246124031008;
                    } else {
                        var0 = 0.8991127384134253;
                    }
                } else {
                    if (input[4] <= 5.050601005554199) {
                        var0 = 0.9091846076802297;
                    } else {
                        var0 = 0.829;
                    }
                }
            }
        }
        double var1;
        if (input[0] <= -1.0724356174468994) {
            if (input[6] <= 0.5) {
                if (input[4] <= -2.177876114845276) {
                    if (input[0] <= -1.3210713267326355) {
                        var1 = 0.96;
                    } else {
                        var1 = 0.94;
                    }
                } else {
                    if (input[4] <= -0.11259698867797852) {
                        var1 = 0.9023640847900342;
                    } else {
                        var1 = 0.8516666666666666;
                    }
                }
            } else {
                if (input[2] <= -1.133669689297676) {
                    if (input[0] <= -1.3244270086288452) {
                        var1 = 0.8878181818181818;
                    } else {
                        var1 = 0.9225308641975309;
                    }
                } else {
                    if (input[4] <= -1.016156643629074) {
                        var1 = 0.8285714285714286;
                    } else {
                        var1 = 0.8863289785611211;
                    }
                }
            }
        } else {
            if (input[6] <= 0.5) {
                if (input[1] <= 20.545328298583627) {
                    if (input[0] <= 0.5824768543243408) {
                        var1 = 0.9144233086685634;
                    } else {
                        var1 = 0.9084126425217979;
                    }
                } else {
                    if (input[0] <= 0.12154783308506012) {
                        var1 = 0.82;
                    } else {
                        var1 = 0.84;
                    }
                }
            } else {
                if (input[0] <= -0.5451530814170837) {
                    if (input[7] <= 0.5) {
                        var1 = 0.9072213541666665;
                    } else {
                        var1 = 0.8991086163186874;
                    }
                } else {
                    if (input[7] <= 0.5) {
                        var1 = 0.9140907472363937;
                    } else {
                        var1 = 0.9069274888819584;
                    }
                }
            }
        }
        double var2;
        if (input[0] <= -0.8563434779644012) {
            if (input[6] <= 0.5) {
                if (input[3] <= 16.507580757141113) {
                    if (input[4] <= 0.016482964158058167) {
                        var2 = 0.9088948031699138;
                    } else {
                        var2 = 0.8390000000000001;
                    }
                } else {
                    if (input[13] <= -0.5) {
                        var2 = 0.98;
                    } else {
                        var2 = 0.9486111111111111;
                    }
                }
            } else {
                if (input[0] <= -1.4484599828720093) {
                    if (input[2] <= 0.39837120473384857) {
                        var2 = 0.9143521594684388;
                    } else {
                        var2 = 0.8792857142857144;
                    }
                } else {
                    if (input[0] <= -1.2691535353660583) {
                        var2 = 0.8758523809523809;
                    } else {
                        var2 = 0.891176767676768;
                    }
                }
            }
        } else {
            if (input[6] <= 0.5) {
                if (input[0] <= -0.8377923369407654) {
                    if (input[2] <= -1.133669689297676) {
                        var2 = 0.9183333333333333;
                    } else {
                        var2 = 0.9438000000000001;
                    }
                } else {
                    if (input[0] <= -0.8367159962654114) {
                        var2 = 0.82;
                    } else {
                        var2 = 0.9128823094530042;
                    }
                }
            } else {
                if (input[0] <= -0.5221699476242065) {
                    if (input[0] <= -0.8557103276252747) {
                        var2 = 0.97;
                    } else {
                        var2 = 0.9005964870871925;
                    }
                } else {
                    if (input[4] <= 5.050601005554199) {
                        var2 = 0.9087784995985299;
                    } else {
                        var2 = 0.8380000000000001;
                    }
                }
            }
        }
        double var3;
        if (input[0] <= -1.0431210398674011) {
            if (input[6] <= 0.5) {
                if (input[4] <= -1.661556363105774) {
                    if (input[0] <= -1.2343939542770386) {
                        var3 = 0.923987271638215;
                    } else {
                        var3 = 0.9029166666666667;
                    }
                } else {
                    if (input[0] <= -1.4919570088386536) {
                        var3 = 0.8679196428571428;
                    } else {
                        var3 = 0.9046906602254428;
                    }
                }
            } else {
                if (input[2] <= -1.133669689297676) {
                    if (input[4] <= -1.919716238975525) {
                        var3 = 0.9583333333333334;
                    } else {
                        var3 = 0.9004613095238095;
                    }
                } else {
                    if (input[4] <= -1.016156643629074) {
                        var3 = 0.8458333333333333;
                    } else {
                        var3 = 0.8848468365302035;
                    }
                }
            }
        } else {
            if (input[0] <= -0.6610817909240723) {
                if (input[6] <= 0.5) {
                    if (input[5] <= 0.5) {
                        var3 = 0.9228192982456139;
                    } else {
                        var3 = 0.9097261904761905;
                    }
                } else {
                    if (input[12] <= 0.5) {
                        var3 = 0.8986259590792829;
                    } else {
                        var3 = 0.8255555555555555;
                    }
                }
            } else {
                if (input[1] <= 30.830639839172363) {
                    if (input[0] <= 0.4128575026988983) {
                        var3 = 0.908702531799358;
                    } else {
                        var3 = 0.9118610285854828;
                    }
                } else {
                    if (input[0] <= 0.8222485780715942) {
                        var3 = 0.835;
                    } else {
                        var3 = 0.87;
                    }
                }
            }
        }
        double var4;
        if (input[0] <= -1.0576833486557007) {
            if (input[6] <= 0.5) {
                if (input[2] <= 0.39837120473384857) {
                    if (input[0] <= -1.0628751516342163) {
                        var4 = 0.9019233657620748;
                    } else {
                        var4 = 0.83;
                    }
                } else {
                    if (input[4] <= -0.49983684718608856) {
                        var4 = 0.876;
                    } else {
                        var4 = 0.8591666666666665;
                    }
                }
            } else {
                if (input[0] <= -1.3165127038955688) {
                    if (input[0] <= -1.4485233426094055) {
                        var4 = 0.8877428571428573;
                    } else {
                        var4 = 0.8695761904761905;
                    }
                } else {
                    if (input[0] <= -1.0594561696052551) {
                        var4 = 0.8925204658134431;
                    } else {
                        var4 = 0.8396874999999999;
                    }
                }
            }
        } else {
            if (input[6] <= 0.5) {
                if (input[3] <= 5.450231730937958) {
                    if (input[0] <= -0.7987906634807587) {
                        var4 = 0.9173018779342724;
                    } else {
                        var4 = 0.9115129080929076;
                    }
                } else {
                    if (input[13] <= 0.5) {
                        var4 = 0.9358484848484847;
                    } else {
                        var4 = 0.96;
                    }
                }
            } else {
                if (input[0] <= 0.21512655168771744) {
                    if (input[0] <= -0.6663368940353394) {
                        var4 = 0.8995307357413654;
                    } else {
                        var4 = 0.9057311351395928;
                    }
                } else {
                    if (input[4] <= 5.050601005554199) {
                        var4 = 0.9115521916886665;
                    } else {
                        var4 = 0.832;
                    }
                }
            }
        }
        double var5;
        if (input[0] <= -0.8596358299255371) {
            if (input[6] <= 0.5) {
                if (input[4] <= -0.3707568794488907) {
                    if (input[0] <= -0.8660939037799835) {
                        var5 = 0.9094000933706816;
                    } else {
                        var5 = 0.8743333333333333;
                    }
                } else {
                    if (input[4] <= 0.016482964158058167) {
                        var5 = 0.86;
                    } else {
                        var5 = 0.8366666666666666;
                    }
                }
            } else {
                if (input[2] <= -1.133669689297676) {
                    if (input[2] <= -2.6657105684280396) {
                        var5 = 0.9481428571428572;
                    } else {
                        var5 = 0.9040245098039212;
                    }
                } else {
                    if (input[0] <= -1.1704463362693787) {
                        var5 = 0.8803109815354709;
                    } else {
                        var5 = 0.890385599415205;
                    }
                }
            }
        } else {
            if (input[1] <= 20.545328298583627) {
                if (input[4] <= -0.628916785120964) {
                    if (input[0] <= -0.8061351478099823) {
                        var5 = 0.934128205128205;
                    } else {
                        var5 = 0.9149081830867546;
                    }
                } else {
                    if (input[0] <= 0.19182684272527695) {
                        var5 = 0.9068561578850194;
                    } else {
                        var5 = 0.911163702849694;
                    }
                }
            } else {
                if (input[0] <= 0.8222485780715942) {
                    if (input[0] <= -0.3312136307358742) {
                        var5 = 0.82;
                    } else {
                        var5 = 0.84;
                    }
                } else {
                    var5 = 0.87;
                }
            }
        }
        double var6;
        if (input[0] <= -1.1117538809776306) {
            if (input[2] <= -1.133669689297676) {
                if (input[0] <= -1.401733934879303) {
                    if (input[0] <= -1.4232608675956726) {
                        var6 = 0.9240479129923576;
                    } else {
                        var6 = 0.9497222222222222;
                    }
                } else {
                    if (input[5] <= 0.5) {
                        var6 = 0.9178139825218475;
                    } else {
                        var6 = 0.8954310344827585;
                    }
                }
            } else {
                if (input[6] <= 0.5) {
                    if (input[4] <= -0.11259698867797852) {
                        var6 = 0.8992695160031222;
                    } else {
                        var6 = 0.8528571428571429;
                    }
                } else {
                    if (input[0] <= -1.4550447463989258) {
                        var6 = 0.8982236842105263;
                    } else {
                        var6 = 0.8801564102564099;
                    }
                }
            }
        } else {
            if (input[6] <= 0.5) {
                if (input[3] <= 5.450231730937958) {
                    if (input[0] <= 1.4463388919830322) {
                        var6 = 0.9130957898411646;
                    } else {
                        var6 = 0.9062312348668277;
                    }
                } else {
                    if (input[0] <= -0.9790468513965607) {
                        var6 = 0.9514583333333334;
                    } else {
                        var6 = 0.9289976689976689;
                    }
                }
            } else {
                if (input[0] <= -0.6610817909240723) {
                    if (input[12] <= 0.5) {
                        var6 = 0.8988276796642778;
                    } else {
                        var6 = 0.81;
                    }
                } else {
                    if (input[0] <= 0.7098654806613922) {
                        var6 = 0.9072458837046282;
                    } else {
                        var6 = 0.9127731377444889;
                    }
                }
            }
        }
        double var7;
        if (input[0] <= -0.8577364087104797) {
            if (input[6] <= 0.5) {
                if (input[0] <= -1.5095584392547607) {
                    if (input[0] <= -1.5676177144050598) {
                        var7 = 0.9309027777777779;
                    } else {
                        var7 = 0.8625563909774435;
                    }
                } else {
                    if (input[7] <= 0.5) {
                        var7 = 0.862142857142857;
                    } else {
                        var7 = 0.912244096761512;
                    }
                }
            } else {
                if (input[2] <= -1.133669689297676) {
                    if (input[0] <= -1.3244270086288452) {
                        var7 = 0.8807589285714287;
                    } else {
                        var7 = 0.9109577922077919;
                    }
                } else {
                    if (input[0] <= -1.2721292972564697) {
                        var7 = 0.8758778467908904;
                    } else {
                        var7 = 0.8886088157485218;
                    }
                }
            }
        } else {
            if (input[6] <= 0.5) {
                if (input[0] <= -0.7797963321208954) {
                    if (input[0] <= -0.8517215251922607) {
                        var7 = 0.906;
                    } else {
                        var7 = 0.9308630385487526;
                    }
                } else {
                    if (input[0] <= 1.9584892988204956) {
                        var7 = 0.9134208713116126;
                    } else {
                        var7 = 0.8999190917107582;
                    }
                }
            } else {
                if (input[0] <= -0.5227397978305817) {
                    if (input[0] <= -0.8423510193824768) {
                        var7 = 0.9208495934959349;
                    } else {
                        var7 = 0.9007220370061675;
                    }
                } else {
                    if (input[0] <= 1.2412001490592957) {
                        var7 = 0.9076547424820234;
                    } else {
                        var7 = 0.9128014597680862;
                    }
                }
            }
        }
        double var8;
        if (input[0] <= -0.661271721124649) {
            if (input[6] <= 0.5) {
                if (input[0] <= -1.2640883922576904) {
                    if (input[4] <= -1.919716238975525) {
                        var8 = 0.9224101382488479;
                    } else {
                        var8 = 0.8957654540076901;
                    }
                } else {
                    if (input[0] <= -0.6682996451854706) {
                        var8 = 0.913065663917191;
                    } else {
                        var8 = 0.8722222222222222;
                    }
                }
            } else {
                if (input[0] <= -1.314866542816162) {
                    if (input[0] <= -1.469100534915924) {
                        var8 = 0.8976600985221677;
                    } else {
                        var8 = 0.8670372023809524;
                    }
                } else {
                    if (input[4] <= -0.628916785120964) {
                        var8 = 0.9134493670886076;
                    } else {
                        var8 = 0.8938151486047817;
                    }
                }
            }
        } else {
            if (input[1] <= 20.545328298583627) {
                if (input[6] <= 0.5) {
                    if (input[3] <= 5.450231730937958) {
                        var8 = 0.9125322818586318;
                    } else {
                        var8 = 0.9443905723905723;
                    }
                } else {
                    if (input[0] <= 0.8512465953826904) {
                        var8 = 0.9068957432410832;
                    } else {
                        var8 = 0.9134631603397071;
                    }
                }
            } else {
                if (input[0] <= 0.917346864938736) {
                    if (input[0] <= -0.3312136307358742) {
                        var8 = 0.82;
                    } else {
                        var8 = 0.84;
                    }
                } else {
                    var8 = 0.8966666666666666;
                }
            }
        }
        double var9;
        if (input[0] <= -0.6498751640319824) {
            if (input[6] <= 0.5) {
                if (input[2] <= -1.133669689297676) {
                    if (input[3] <= 5.450231730937958) {
                        var9 = 0.9142924836601306;
                    } else {
                        var9 = 0.9314401709401712;
                    }
                } else {
                    if (input[0] <= -1.152338445186615) {
                        var9 = 0.8942705119606531;
                    } else {
                        var9 = 0.9078813131313132;
                    }
                }
            } else {
                if (input[0] <= -0.8577364087104797) {
                    if (input[2] <= -1.133669689297676) {
                        var9 = 0.9078702213279678;
                    } else {
                        var9 = 0.8877795349382067;
                    }
                } else {
                    if (input[0] <= -0.8557736575603485) {
                        var9 = 0.9473125;
                    } else {
                        var9 = 0.8983929811507935;
                    }
                }
            }
        } else {
            if (input[4] <= 0.016482964158058167) {
                if (input[1] <= 30.830639839172363) {
                    if (input[5] <= 0.5) {
                        var9 = 0.9090807325344181;
                    } else {
                        var9 = 0.9133855304113082;
                    }
                } else {
                    if (input[0] <= -0.3312136307358742) {
                        var9 = 0.82;
                    } else {
                        var9 = 0.84;
                    }
                }
            } else {
                if (input[0] <= 0.4031704068183899) {
                    if (input[0] <= 0.32890257239341736) {
                        var9 = 0.9054368893011778;
                    } else {
                        var9 = 0.8892777777777781;
                    }
                } else {
                    if (input[4] <= 5.050601005554199) {
                        var9 = 0.9120358502694955;
                    } else {
                        var9 = 0.82;
                    }
                }
            }
        }
        double var10;
        if (input[0] <= -0.5709220468997955) {
            if (input[6] <= 0.5) {
                if (input[4] <= 0.016482964158058167) {
                    if (input[3] <= 5.450231730937958) {
                        var10 = 0.9099587109884216;
                    } else {
                        var10 = 0.9309644444444445;
                    }
                } else {
                    if (input[0] <= -1.0743350386619568) {
                        var10 = 0.85625;
                    } else {
                        var10 = 0.825;
                    }
                }
            } else {
                if (input[0] <= -1.1133367419242859) {
                    if (input[4] <= -0.628916785120964) {
                        var10 = 0.9039767573696147;
                    } else {
                        var10 = 0.8841765714285709;
                    }
                } else {
                    if (input[11] <= 0.5) {
                        var10 = 0.81;
                    } else {
                        var10 = 0.8975834480026686;
                    }
                }
            }
        } else {
            if (input[6] <= 0.5) {
                if (input[0] <= -0.4508778899908066) {
                    if (input[0] <= -0.4616413563489914) {
                        var10 = 0.9221695052716953;
                    } else {
                        var10 = 0.9502564102564102;
                    }
                } else {
                    if (input[0] <= 1.7682294249534607) {
                        var10 = 0.9123232604589754;
                    } else {
                        var10 = 0.9010970182465513;
                    }
                }
            } else {
                if (input[7] <= 0.5) {
                    if (input[4] <= -0.8870767056941986) {
                        var10 = 0.9272687465790912;
                    } else {
                        var10 = 0.9117740441774616;
                    }
                } else {
                    if (input[0] <= 0.28236646950244904) {
                        var10 = 0.9048795503851916;
                    } else {
                        var10 = 0.9092142857142883;
                    }
                }
            }
        }
        double var11;
        if (input[0] <= -0.8562168478965759) {
            if (input[6] <= 0.5) {
                if (input[4] <= -0.11259698867797852) {
                    if (input[3] <= 16.507580757141113) {
                        var11 = 0.9071139892487999;
                    } else {
                        var11 = 0.9705555555555556;
                    }
                } else {
                    if (input[0] <= -1.0743350386619568) {
                        var11 = 0.8549999999999999;
                    } else {
                        var11 = 0.825;
                    }
                }
            } else {
                if (input[2] <= -1.133669689297676) {
                    if (input[0] <= -1.0709161162376404) {
                        var11 = 0.9203349753694582;
                    } else {
                        var11 = 0.9006714285714287;
                    }
                } else {
                    if (input[0] <= -1.289604127407074) {
                        var11 = 0.878288710186061;
                    } else {
                        var11 = 0.8895010756216726;
                    }
                }
            }
        } else {
            if (input[6] <= 0.5) {
                if (input[0] <= -0.8381722271442413) {
                    if (input[0] <= -0.8517215251922607) {
                        var11 = 0.9100000000000001;
                    } else {
                        var11 = 0.9458695652173914;
                    }
                } else {
                    if (input[0] <= 1.9347463250160217) {
                        var11 = 0.9132639527932445;
                    } else {
                        var11 = 0.9020714285714286;
                    }
                }
            } else {
                if (input[0] <= 0.46604160964488983) {
                    if (input[0] <= -0.6186611354351044) {
                        var11 = 0.9003499141592123;
                    } else {
                        var11 = 0.9064523425623108;
                    }
                } else {
                    if (input[4] <= -1.5324764251708984) {
                        var11 = 0.9289516129032258;
                    } else {
                        var11 = 0.9114727682463087;
                    }
                }
            }
        }
        double var12;
        if (input[0] <= -0.5801659524440765) {
            if (input[6] <= 0.5) {
                if (input[2] <= -1.133669689297676) {
                    if (input[0] <= -1.4161063432693481) {
                        var12 = 0.9388672839506172;
                    } else {
                        var12 = 0.9137389670514666;
                    }
                } else {
                    if (input[0] <= -1.421931266784668) {
                        var12 = 0.8839916344916345;
                    } else {
                        var12 = 0.9057082068938683;
                    }
                }
            } else {
                if (input[0] <= -0.8577364087104797) {
                    if (input[0] <= -0.8637512624263763) {
                        var12 = 0.8913710911784058;
                    } else {
                        var12 = 0.847857142857143;
                    }
                } else {
                    if (input[4] <= -1.016156643629074) {
                        var12 = 0.8810900900900902;
                    } else {
                        var12 = 0.9012570774014069;
                    }
                }
            }
        } else {
            if (input[1] <= 20.545328298583627) {
                if (input[6] <= 0.5) {
                    if (input[0] <= 0.522961288690567) {
                        var12 = 0.915556513086253;
                    } else {
                        var12 = 0.9079879941360829;
                    }
                } else {
                    if (input[4] <= 5.050601005554199) {
                        var12 = 0.9087574283769072;
                    } else {
                        var12 = 0.8380000000000001;
                    }
                }
            } else {
                if (input[0] <= 0.8222485780715942) {
                    if (input[0] <= -0.3312136307358742) {
                        var12 = 0.82;
                    } else {
                        var12 = 0.84;
                    }
                } else {
                    if (input[6] <= 0.5) {
                        var12 = 0.8966666666666666;
                    } else {
                        var12 = 0.87;
                    }
                }
            }
        }
        double var13;
        if (input[0] <= -0.8700827062129974) {
            if (input[6] <= 0.5) {
                if (input[4] <= -1.919716238975525) {
                    if (input[0] <= -1.2575669884681702) {
                        var13 = 0.9353773448773448;
                    } else {
                        var13 = 0.9087096908939014;
                    }
                } else {
                    if (input[0] <= -1.1171989440917969) {
                        var13 = 0.9009895615137556;
                    } else {
                        var13 = 0.9112412634408606;
                    }
                }
            } else {
                if (input[0] <= -1.1090313792228699) {
                    if (input[2] <= -1.133669689297676) {
                        var13 = 0.909359243697479;
                    } else {
                        var13 = 0.8806836858529823;
                    }
                } else {
                    if (input[0] <= -0.9609389305114746) {
                        var13 = 0.8975693099273608;
                    } else {
                        var13 = 0.8890276190476191;
                    }
                }
            }
        } else {
            if (input[6] <= 0.5) {
                if (input[0] <= -0.7987906634807587) {
                    if (input[4] <= -1.661556363105774) {
                        var13 = 0.9087564102564103;
                    } else {
                        var13 = 0.9339714285714283;
                    }
                } else {
                    if (input[3] <= 5.450231730937958) {
                        var13 = 0.9130443398996833;
                    } else {
                        var13 = 0.9452200577200577;
                    }
                }
            } else {
                if (input[0] <= 0.4065893739461899) {
                    if (input[0] <= -0.661651611328125) {
                        var13 = 0.9001446569988683;
                    } else {
                        var13 = 0.9067319325861781;
                    }
                } else {
                    if (input[0] <= 2.1468496322631836) {
                        var13 = 0.9139747027118641;
                    } else {
                        var13 = 0.9057184953829438;
                    }
                }
            }
        }
        double var14;
        if (input[0] <= -0.5821287333965302) {
            if (input[6] <= 0.5) {
                if (input[3] <= 5.450231730937958) {
                    if (input[4] <= -0.11259698867797852) {
                        var14 = 0.9084007059985973;
                    } else {
                        var14 = 0.8549999999999999;
                    }
                } else {
                    if (input[0] <= -1.2249600291252136) {
                        var14 = 0.9498351648351648;
                    } else {
                        var14 = 0.9275362318840579;
                    }
                }
            } else {
                if (input[0] <= -0.880339652299881) {
                    if (input[2] <= -1.133669689297676) {
                        var14 = 0.9164791666666671;
                    } else {
                        var14 = 0.8867807936507937;
                    }
                } else {
                    if (input[0] <= -0.586244136095047) {
                        var14 = 0.9032278582930746;
                    } else {
                        var14 = 0.8607142857142857;
                    }
                }
            }
        } else {
            if (input[4] <= 5.050601005554199) {
                if (input[6] <= 0.5) {
                    if (input[0] <= -0.5785197913646698) {
                        var14 = 0.945;
                    } else {
                        var14 = 0.9126849858916776;
                    }
                } else {
                    if (input[7] <= 0.5) {
                        var14 = 0.9120858263305327;
                    } else {
                        var14 = 0.9073605531378668;
                    }
                }
            } else {
                var14 = 0.82;
            }
        }
        double var15;
        if (input[0] <= -0.657346248626709) {
            if (input[6] <= 0.5) {
                if (input[0] <= -1.4921469688415527) {
                    if (input[2] <= -1.133669689297676) {
                        var15 = 0.9209240362811791;
                    } else {
                        var15 = 0.8607482993197278;
                    }
                } else {
                    if (input[4] <= -0.3707568794488907) {
                        var15 = 0.9104462327694238;
                    } else {
                        var15 = 0.8566666666666668;
                    }
                }
            } else {
                if (input[0] <= -1.0724989771842957) {
                    if (input[2] <= -1.133669689297676) {
                        var15 = 0.9148623188405796;
                    } else {
                        var15 = 0.8849481652349136;
                    }
                } else {
                    if (input[0] <= -0.676910400390625) {
                        var15 = 0.8994372784712592;
                    } else {
                        var15 = 0.8723043478260868;
                    }
                }
            }
        } else {
            if (input[4] <= 0.7909626513719559) {
                if (input[1] <= 30.830639839172363) {
                    if (input[5] <= 0.5) {
                        var15 = 0.9100011858478613;
                    } else {
                        var15 = 0.9138109267947135;
                    }
                } else {
                    if (input[0] <= 0.8222485780715942) {
                        var15 = 0.84;
                    } else {
                        var15 = 0.87;
                    }
                }
            } else {
                if (input[0] <= 0.7061932384967804) {
                    if (input[0] <= 0.7024576961994171) {
                        var15 = 0.9056742869790712;
                    } else {
                        var15 = 0.866;
                    }
                } else {
                    if (input[0] <= 2.6065757274627686) {
                        var15 = 0.9150883256528417;
                    } else {
                        var15 = 0.8972435897435896;
                    }
                }
            }
        }
        double var16;
        if (input[0] <= -0.9186448752880096) {
            if (input[6] <= 0.5) {
                if (input[4] <= -1.661556363105774) {
                    if (input[13] <= -0.5) {
                        var16 = 0.9532222222222222;
                    } else {
                        var16 = 0.9195364396654722;
                    }
                } else {
                    if (input[4] <= 0.016482964158058167) {
                        var16 = 0.9010605825041456;
                    } else {
                        var16 = 0.8492857142857142;
                    }
                }
            } else {
                if (input[0] <= -1.257250428199768) {
                    if (input[0] <= -1.4480801224708557) {
                        var16 = 0.8962946428571429;
                    } else {
                        var16 = 0.8725366927592958;
                    }
                } else {
                    if (input[2] <= -1.133669689297676) {
                        var16 = 0.9104324324324324;
                    } else {
                        var16 = 0.8890771017600287;
                    }
                }
            }
        } else {
            if (input[0] <= -0.9130732119083405) {
                if (input[4] <= 0.403722807765007) {
                    if (input[0] <= -0.9182016849517822) {
                        var16 = 0.9666666666666667;
                    } else {
                        var16 = 0.9458823529411764;
                    }
                } else {
                    if (input[0] <= -0.9174419045448303) {
                        var16 = 0.93;
                    } else {
                        var16 = 0.8875;
                    }
                }
            } else {
                if (input[0] <= -0.5601586103439331) {
                    if (input[6] <= 0.5) {
                        var16 = 0.9088889738622068;
                    } else {
                        var16 = 0.9008695685115721;
                    }
                } else {
                    if (input[1] <= 30.830639839172363) {
                        var16 = 0.9097590750965169;
                    } else {
                        var16 = 0.8480000000000001;
                    }
                }
            }
        }
        double var17;
        if (input[0] <= -0.5821287333965302) {
            if (input[6] <= 0.5) {
                if (input[2] <= -1.133669689297676) {
                    if (input[7] <= 0.5) {
                        var17 = 0.85;
                    } else {
                        var17 = 0.920419916389052;
                    }
                } else {
                    if (input[0] <= -1.4902475476264954) {
                        var17 = 0.8770535714285715;
                    } else {
                        var17 = 0.9097973087932103;
                    }
                }
            } else {
                if (input[0] <= -0.9256094694137573) {
                    if (input[0] <= -1.2998610734939575) {
                        var17 = 0.8775181657848325;
                    } else {
                        var17 = 0.8916626447876445;
                    }
                } else {
                    if (input[0] <= -0.586244136095047) {
                        var17 = 0.9010756546355262;
                    } else {
                        var17 = 0.8779545454545455;
                    }
                }
            }
        } else {
            if (input[4] <= 0.016482964158058167) {
                if (input[1] <= 30.830639839172363) {
                    if (input[0] <= -0.5787097215652466) {
                        var17 = 0.9533333333333331;
                    } else {
                        var17 = 0.9112431349294099;
                    }
                } else {
                    if (input[0] <= 0.8222485780715942) {
                        var17 = 0.84;
                    } else {
                        var17 = 0.87;
                    }
                }
            } else {
                if (input[0] <= -0.06997831165790558) {
                    if (input[6] <= 0.5) {
                        var17 = 0.8697056878306878;
                    } else {
                        var17 = 0.9040620102471362;
                    }
                } else {
                    if (input[4] <= 5.050601005554199) {
                        var17 = 0.9095286100804;
                    } else {
                        var17 = 0.82;
                    }
                }
            }
        }
        double var18;
        if (input[0] <= -1.09332937002182) {
            if (input[6] <= 0.5) {
                if (input[5] <= 0.5) {
                    if (input[8] <= 0.5) {
                        var18 = 0.9163431786216595;
                    } else {
                        var18 = 0.9414808802308802;
                    }
                } else {
                    if (input[0] <= -1.274345338344574) {
                        var18 = 0.8933430969510103;
                    } else {
                        var18 = 0.9071255144032921;
                    }
                }
            } else {
                if (input[0] <= -1.4654915928840637) {
                    if (input[0] <= -1.5393795371055603) {
                        var18 = 0.9007692307692309;
                    } else {
                        var18 = 0.9258673469387755;
                    }
                } else {
                    if (input[0] <= -1.314866542816162) {
                        var18 = 0.8715886107020129;
                    } else {
                        var18 = 0.8898558448301438;
                    }
                }
            }
        } else {
            if (input[6] <= 0.5) {
                if (input[1] <= 20.545328298583627) {
                    if (input[0] <= 1.7660134434700012) {
                        var18 = 0.9149522097290833;
                    } else {
                        var18 = 0.9047690826330532;
                    }
                } else {
                    if (input[0] <= 0.917346864938736) {
                        var18 = 0.84;
                    } else {
                        var18 = 0.8966666666666666;
                    }
                }
            } else {
                if (input[0] <= -0.4879801422357559) {
                    if (input[0] <= -0.9256094694137573) {
                        var18 = 0.894704119850187;
                    } else {
                        var18 = 0.9020856490744441;
                    }
                } else {
                    if (input[7] <= 0.5) {
                        var18 = 0.9148078540507106;
                    } else {
                        var18 = 0.9084225268513456;
                    }
                }
            }
        }
        double var19;
        if (input[0] <= -0.6479756832122803) {
            if (input[6] <= 0.5) {
                if (input[5] <= 0.5) {
                    if (input[0] <= -1.2292654514312744) {
                        var19 = 0.9297677248677249;
                    } else {
                        var19 = 0.9129938132733411;
                    }
                } else {
                    if (input[0] <= -1.301317274570465) {
                        var19 = 0.8915809294871798;
                    } else {
                        var19 = 0.9072835937499999;
                    }
                }
            } else {
                if (input[0] <= -1.2691535353660583) {
                    if (input[2] <= -1.133669689297676) {
                        var19 = 0.904702380952381;
                    } else {
                        var19 = 0.8765855431993157;
                    }
                } else {
                    if (input[12] <= 0.5) {
                        var19 = 0.8960103213860424;
                    } else {
                        var19 = 0.8158333333333334;
                    }
                }
            }
        } else {
            if (input[7] <= 0.5) {
                if (input[0] <= 0.8504868149757385) {
                    if (input[0] <= 0.809965580701828) {
                        var19 = 0.9108717320261436;
                    } else {
                        var19 = 0.8754545454545454;
                    }
                } else {
                    if (input[0] <= 1.8544636964797974) {
                        var19 = 0.9256224120082812;
                    } else {
                        var19 = 0.9107788161993768;
                    }
                }
            } else {
                if (input[11] <= 0.5) {
                    var19 = 0.8466666666666667;
                } else {
                    if (input[6] <= 0.5) {
                        var19 = 0.9104576053985672;
                    } else {
                        var19 = 0.9075343194453633;
                    }
                }
            }
        }
        double var20;
        if (input[0] <= -0.8562801778316498) {
            if (input[6] <= 0.5) {
                if (input[4] <= -0.11259698867797852) {
                    if (input[8] <= 0.5) {
                        var20 = 0.9107265206544873;
                    } else {
                        var20 = 0.9316083099906628;
                    }
                } else {
                    if (input[0] <= -1.0743350386619568) {
                        var20 = 0.8525;
                    } else {
                        var20 = 0.825;
                    }
                }
            } else {
                if (input[0] <= -1.2800436615943909) {
                    if (input[2] <= -1.133669689297676) {
                        var20 = 0.9091269841269841;
                    } else {
                        var20 = 0.8747743055555555;
                    }
                } else {
                    if (input[2] <= -1.133669689297676) {
                        var20 = 0.9029584278155707;
                    } else {
                        var20 = 0.8909456217728048;
                    }
                }
            }
        } else {
            if (input[6] <= 0.5) {
                if (input[0] <= 3.936305284500122) {
                    if (input[0] <= -0.8363994359970093) {
                        var20 = 0.9360606060606058;
                    } else {
                        var20 = 0.9124897706642258;
                    }
                } else {
                    if (input[0] <= 4.320434093475342) {
                        var20 = 0.9700000000000001;
                    } else {
                        var20 = 0.904;
                    }
                }
            } else {
                if (input[0] <= 0.21322712302207947) {
                    if (input[0] <= 0.1823296770453453) {
                        var20 = 0.9065988415852675;
                    } else {
                        var20 = 0.8927971887550202;
                    }
                } else {
                    if (input[0] <= 0.23545047640800476) {
                        var20 = 0.9331851851851851;
                    } else {
                        var20 = 0.9104596020299195;
                    }
                }
            }
        }
        double var21;
        if (input[0] <= -0.9748047590255737) {
            if (input[6] <= 0.5) {
                if (input[8] <= 0.5) {
                    if (input[0] <= -1.2236304879188538) {
                        var21 = 0.8976431062709087;
                    } else {
                        var21 = 0.912941534391534;
                    }
                } else {
                    if (input[13] <= 0.5) {
                        var21 = 0.9523931623931626;
                    } else {
                        var21 = 0.9211507936507936;
                    }
                }
            } else {
                if (input[2] <= -1.133669689297676) {
                    if (input[0] <= -1.1756381392478943) {
                        var21 = 0.9248809523809524;
                    } else {
                        var21 = 0.9018214285714288;
                    }
                } else {
                    if (input[0] <= -1.2979615926742554) {
                        var21 = 0.8771409774436092;
                    } else {
                        var21 = 0.8884921966549486;
                    }
                }
            }
        } else {
            if (input[6] <= 0.5) {
                if (input[1] <= 20.545328298583627) {
                    if (input[3] <= 5.450231730937958) {
                        var21 = 0.9137974793520668;
                    } else {
                        var21 = 0.9398112706007441;
                    }
                } else {
                    if (input[0] <= 0.917346864938736) {
                        var21 = 0.8266666666666667;
                    } else {
                        var21 = 0.8966666666666666;
                    }
                }
            } else {
                if (input[0] <= -0.455183282494545) {
                    if (input[12] <= 0.5) {
                        var21 = 0.9024135707575383;
                    } else {
                        var21 = 0.8216666666666668;
                    }
                } else {
                    if (input[7] <= 0.5) {
                        var21 = 0.9149130421595404;
                    } else {
                        var21 = 0.9087644341801425;
                    }
                }
            }
        }
        double var22;
        if (input[0] <= -0.9508086144924164) {
            if (input[6] <= 0.5) {
                if (input[0] <= -1.2202114462852478) {
                    if (input[3] <= 5.450231730937958) {
                        var22 = 0.8953152841781878;
                    } else {
                        var22 = 0.9437606837606837;
                    }
                } else {
                    if (input[0] <= -1.1420814990997314) {
                        var22 = 0.9212426624737946;
                    } else {
                        var22 = 0.9082629435718436;
                    }
                }
            } else {
                if (input[2] <= -1.133669689297676) {
                    if (input[0] <= -1.462452471256256) {
                        var22 = 0.9349107142857143;
                    } else {
                        var22 = 0.9052270723104053;
                    }
                } else {
                    if (input[13] <= -0.5) {
                        var22 = 0.955;
                    } else {
                        var22 = 0.8897665491355773;
                    }
                }
            }
        } else {
            if (input[6] <= 0.5) {
                if (input[0] <= -0.9432741701602936) {
                    if (input[0] <= -0.9485926032066345) {
                        var22 = 0.92;
                    } else {
                        var22 = 0.9424242424242425;
                    }
                } else {
                    if (input[0] <= 4.038051605224609) {
                        var22 = 0.9132753729501607;
                    } else {
                        var22 = 0.9445384615384615;
                    }
                }
            } else {
                if (input[0] <= 0.7061932384967804) {
                    if (input[0] <= -0.6477857530117035) {
                        var22 = 0.8996521647418659;
                    } else {
                        var22 = 0.9074899754594742;
                    }
                } else {
                    if (input[7] <= 0.5) {
                        var22 = 0.9196849927849922;
                    } else {
                        var22 = 0.9126984741027294;
                    }
                }
            }
        }
        double var23;
        if (input[0] <= -0.8577364087104797) {
            if (input[6] <= 0.5) {
                if (input[2] <= 0.39837120473384857) {
                    if (input[5] <= 0.5) {
                        var23 = 0.9197582781456951;
                    } else {
                        var23 = 0.9064732269349759;
                    }
                } else {
                    if (input[0] <= -1.390210747718811) {
                        var23 = 0.8825000000000001;
                    } else {
                        var23 = 0.8638888888888889;
                    }
                }
            } else {
                if (input[0] <= -1.2691535353660583) {
                    if (input[0] <= -1.4485233426094055) {
                        var23 = 0.8960714285714285;
                    } else {
                        var23 = 0.8720311493018256;
                    }
                } else {
                    if (input[0] <= -1.2690268754959106) {
                        var23 = 0.96;
                    } else {
                        var23 = 0.8934097575018631;
                    }
                }
            }
        } else {
            if (input[6] <= 0.5) {
                if (input[0] <= 1.568789005279541) {
                    if (input[0] <= -0.5828884840011597) {
                        var23 = 0.9078739660183324;
                    } else {
                        var23 = 0.91635536653686;
                    }
                } else {
                    if (input[0] <= 2.311150550842285) {
                        var23 = 0.8981714820759766;
                    } else {
                        var23 = 0.9118895833333334;
                    }
                }
            } else {
                if (input[7] <= 0.5) {
                    if (input[0] <= -0.8377923667430878) {
                        var23 = 0.9492307692307692;
                    } else {
                        var23 = 0.9129996631949846;
                    }
                } else {
                    if (input[0] <= 0.7912245094776154) {
                        var23 = 0.9050769247154856;
                    } else {
                        var23 = 0.9121279136654656;
                    }
                }
            }
        }
        double var24;
        if (input[0] <= -1.0577466487884521) {
            if (input[6] <= 0.5) {
                if (input[2] <= -1.133669689297676) {
                    if (input[0] <= -1.1047893166542053) {
                        var24 = 0.9135942738466106;
                    } else {
                        var24 = 0.9410000000000002;
                    }
                } else {
                    if (input[0] <= -1.1178954243659973) {
                        var24 = 0.8973313725490192;
                    } else {
                        var24 = 0.9170119047619049;
                    }
                }
            } else {
                if (input[0] <= -1.2691535353660583) {
                    if (input[0] <= -1.4521322846412659) {
                        var24 = 0.8972619047619048;
                    } else {
                        var24 = 0.8723531187122737;
                    }
                } else {
                    if (input[0] <= -1.0590763092041016) {
                        var24 = 0.8897194758012191;
                    } else {
                        var24 = 0.8430357142857143;
                    }
                }
            }
        } else {
            if (input[6] <= 0.5) {
                if (input[3] <= 5.450231730937958) {
                    if (input[4] <= 0.7909626513719559) {
                        var24 = 0.9124044899236909;
                    } else {
                        var24 = 0.8866666666666667;
                    }
                } else {
                    if (input[0] <= -0.4398611932992935) {
                        var24 = 0.926875;
                    } else {
                        var24 = 0.9464413364413364;
                    }
                }
            } else {
                if (input[0] <= -0.6477857530117035) {
                    if (input[0] <= -1.0565437078475952) {
                        var24 = 0.9700000000000001;
                    } else {
                        var24 = 0.8987799361207899;
                    }
                } else {
                    if (input[0] <= 0.7061932384967804) {
                        var24 = 0.906214012421713;
                    } else {
                        var24 = 0.9118138775009658;
                    }
                }
            }
        }
        return (var0 + var1 + var2 + var3 + var4 + var5 + var6 + var7 + var8 + var9 + var10 + var11 + var12 + var13 + var14 + var15 + var16 + var17 + var18 + var19 + var20 + var21 + var22 + var23 + var24) * 0.04;
    }
}
